svm_type epsilon_svr
kernel_type rbf
gamma 0.005
nr_class 2
total_sv 1676
rho -210.218
SV
10 0:179.365 1:179.845 
-10 0:179.845 1:180.585 
10 0:180.585 1:179.64 
10 0:179.64 1:178.825 
10 0:178.825 1:179.16 
-10 0:179.16 1:180.68 
-10 0:180.68 1:182.05 
-10 0:182.05 1:180.33 
-10 0:180.33 1:176.04 
-10 0:176.04 1:174.37 
-10 0:174.37 1:172.765 
10 0:172.765 1:169.32 
10 0:169.32 1:169.915 
10 0:169.915 1:172.655 
10 0:172.655 1:174.115 
10 0:174.115 1:176.675 
-10 0:176.675 1:179.645 
-10 0:179.645 1:179.36 
-10 0:179.36 1:177.995 
-10 0:177.995 1:175.295 
-10 0:175.295 1:173.165 
-10 0:173.165 1:173.025 
10 0:173.025 1:170.915 
10 0:170.915 1:170.185 
-10 0:170.185 1:171.805 
-10 0:171.805 1:171.645 
-10 0:171.645 1:171.13 
10 0:169.98 1:169.055 
10 0:169.055 1:171.1 
-10 0:171.1 1:173.34 
-10 0:173.34 1:174.16 
10 0:174.16 1:173.65 
10 0:173.65 1:174.72 
-10 0:174.72 1:176.57 
-10 0:176.57 1:177.53 
-10 0:177.53 1:177.775 
-10 0:177.775 1:177.15 
-10 0:177.15 1:174.26 
-10 0:174.26 1:172.765 
-10 0:172.765 1:171.995 
-10 0:171.995 1:169.945 
10 0:169.945 1:169.465 
10 0:169.465 1:169.77 
-10 0:169.77 1:171.595 
-10 0:171.595 1:171.96 
10 0:171.96 1:171.69 
10 0:171.69 1:172.47 
-10 0:172.47 1:173.07 
-10 0:173.07 1:173.87 
-10 0:173.87 1:173.565 
-10 0:173.565 1:171.075 
10 0:171.075 1:169.48 
10 0:169.48 1:170.27 
10 0:170.27 1:171.65 
-10 0:171.65 1:172.605 
10 0:172.605 1:172.865 
10 0:172.865 1:173.285 
10 0:173.285 1:174.91 
10 0:174.91 1:177.55 
10 0:179.33 1:179.87 
10 0:179.87 1:180.535 
-10 0:180.535 1:181.535 
-10 0:181.535 1:181.64 
10 0:181.64 1:180.46 
10 0:180.46 1:179.37 
10 0:179.37 1:180.52 
-10 0:180.52 1:183.79 
-10 0:183.79 1:184.985 
10 0:184.985 1:184.6 
10 0:184.6 1:185.62 
10 0:185.62 1:186.1 
-10 0:186.1 1:187.03 
10 0:186.805 1:185.475 
-10 0:185.475 1:186.94 
-10 0:186.94 1:188.37 
10 0:188.37 1:186.25 
10 0:186.25 1:185.135 
10 0:185.135 1:186.1 
10 0:186.1 1:186.505 
2.355773391208717 0:187.885 1:188.65 
10 0:188.65 1:188.565 
-10 0:188.565 1:189.41 
-10 0:189.41 1:188.735 
-10 0:188.735 1:185.175 
10 0:185.175 1:181.04 
-10 0:181.04 1:180.345 
-10 0:180.345 1:179.435 
-10 0:179.435 1:177.56 
-10 0:177.56 1:175.77 
-10 0:175.77 1:173.19 
-10 0:173.19 1:173.07 
10 0:173.07 1:170.845 
10 0:170.845 1:170.08 
-10 0:170.08 1:172.235 
-10 0:172.235 1:171.825 
-10 0:171.825 1:169.52 
-10 0:169.52 1:168.94 
-10 0:168.94 1:169.34 
-10 0:169.34 1:166.5 
-10 0:166.5 1:161.14 
-7.015554137706657 0:161.14 1:158.86 
-10 0:158.86 1:159.83 
-10 0:159.83 1:157.74 
10 0:157.74 1:156.565 
10 0:156.565 1:157.53 
-10 0:157.53 1:160.205 
-10 0:160.205 1:162.42 
-10 0:162.42 1:160.135 
10 0:160.135 1:158.555 
10 0:159.415 1:159.54 
10 0:159.54 1:159.53 
10 0:160.77 1:160.77 
10 0:160.77 1:161.74 
-10 0:161.74 1:165.375 
-10 0:165.375 1:167.39 
-10 0:167.39 1:166.74 
-10 0:166.74 1:165.83 
10 0:165.83 1:164.49 
10 0:164.49 1:164.085 
10 0:164.085 1:166.485 
-10 0:166.485 1:168.36 
-10 0:168.36 1:168.19 
-10 0:168.19 1:167.14 
-10 0:167.14 1:164.34 
10 0:161.01 1:159.725 
10 0:159.725 1:162.435 
-10 0:162.435 1:165.055 
10 0:165.055 1:164.465 
10 0:164.465 1:165.09 
10 0:165.09 1:166.175 
10 0:166.175 1:167.31 
-10 0:167.31 1:168.53 
-10 0:168.53 1:168.525 
-10 0:168.525 1:167.825 
10 0:167.825 1:167.705 
-10 0:167.705 1:168.105 
-7.67840820914649 0:168.105 1:168.81 
10 0:168.81 1:168.645 
10 0:168.645 1:169.145 
-10 0:169.145 1:170.895 
-10 0:170.895 1:170.275 
2.358237530303916 0:170.275 1:168.545 
10 0:168.545 1:167.92 
10 0:167.92 1:169.6 
-10 0:169.6 1:171.83 
-10 0:171.83 1:172.91 
-10 0:172.565 1:172.885 
-10 0:172.885 1:173.07 
10 0:173.07 1:171.705 
10 0:171.705 1:172 
10 0:172 1:172.78 
10 0:172.78 1:173.715 
8.686753055542095 0:173.715 1:174.475 
10 0:174.475 1:174.8 
-10 0:176.155 1:176.535 
-10 0:176.535 1:176.47 
-10 0:176.47 1:175.81 
-10 0:175.81 1:175.605 
-10 0:175.605 1:174.39 
10 0:174.39 1:172.64 
10 0:172.64 1:172.605 
10 0:172.605 1:174.64 
-10 0:177.395 1:178.3 
-10 0:178.3 1:177.83 
-10 0:177.83 1:177.325 
-10 0:177.325 1:176.155 
10 0:176.155 1:175.515 
10 0:175.515 1:175.305 
10 0:175.305 1:175.66 
-10 0:175.66 1:177.475 
-10 0:177.475 1:178.13 
-10 0:178.13 1:178.255 
-10 0:178.255 1:176.97 
-10 0:176.97 1:173.63 
10 0:173.63 1:172.28 
10 0:172.28 1:172.645 
10 0:172.645 1:172.805 
10 0:172.805 1:174.26 
-10 0:174.26 1:175.965 
-10 0:175.965 1:176.18 
10 0:176.18 1:176.02 
10 0:176.02 1:176.15 
10 0:176.15 1:176.73 
10 0:177.355 1:177.425 
10 0:177.425 1:177.845 
-10 0:177.845 1:178.365 
-10 0:178.365 1:178.19 
10 0:178.19 1:176.92 
10 0:176.92 1:176.415 
10 0:176.415 1:177.39 
-10 0:177.39 1:178.58 
-10 0:178.58 1:179.18 
10 0:179.18 1:178.775 
10 0:178.775 1:178.93 
10 0:178.93 1:179.03 
10 0:179.03 1:179.96 
10 0:181.045 1:180.855 
10 0:180.855 1:181.615 
-10 0:182.6 1:182.795 
-10 0:182.795 1:182.815 
10 0:182.815 1:182.27 
10 0:182.27 1:181.83 
10 0:181.83 1:183.15 
-10 0:183.15 1:184.005 
10 0:184.005 1:183.84 
-10 0:183.84 1:184.09 
10 0:184.09 1:183.345 
10 0:183.345 1:183.11 
-10 0:183.11 1:184.38 
-10 0:184.38 1:185.12 
-10 0:185.12 1:184.795 
-10 0:184.795 1:183.92 
-10 0:183.92 1:183.065 
-10 0:183.065 1:182.395 
-10 0:182.395 1:180.84 
10 0:180.84 1:179.495 
10 0:179.495 1:178.715 
10 0:178.715 1:178.34 
10 0:178.34 1:181.16 
-10 0:181.16 1:183.695 
10 0:183.695 1:184.6 
10 0:184.6 1:185.005 
10 0:185.005 1:185.585 
-10 0:185.585 1:186.175 
-10 0:186.175 1:185.895 
-10 0:185.895 1:185.8 
10 0:185.8 1:184.96 
-10 0:184.845 1:185.545 
-10 0:185.545 1:183.915 
-10 0:183.915 1:181.325 
-10 0:181.325 1:179.81 
-10 0:179.81 1:178.09 
-10 0:178.09 1:177.3 
10 0:177.3 1:176.255 
10 0:176.255 1:175.625 
10 0:175.625 1:177.81 
-10 0:177.81 1:179.59 
-10 0:179.59 1:179.775 
-10 0:179.775 1:179.115 
-10 0:179.115 1:178.81 
-2.564421380875812 0:178.81 1:177.675 
10 0:177.675 1:176.53 
10 0:176.53 1:176.865 
-10 0:176.865 1:178.135 
-10 0:178.135 1:179.245 
-10 0:179.245 1:178.35 
10 0:178.35 1:176.995 
10 0:176.995 1:176.93 
10 0:176.93 1:176.72 
10 0:176.72 1:177.545 
10 0:177.545 1:181.15 
-10 0:181.15 1:183.465 
-0.103994469740681 0:183.465 1:184.41 
-10 0:184.41 1:184.88 
-10 0:184.46 1:184.485 
10 0:184.485 1:183.76 
10 0:183.76 1:183.045 
10 0:183.045 1:184.505 
10 0:184.505 1:186.27 
10 0:186.27 1:187.195 
10 0:187.195 1:187.845 
10 0:187.845 1:188.01 
10 0:188.01 1:188.81 
-10 0:188.81 1:189.955 
-10 0:189.955 1:190.155 
-10 0:190.155 1:189.135 
-10 0:189.135 1:185.675 
-10 0:185.675 1:182.99 
10 0:182.99 1:180.235 
10 0:180.235 1:179.46 
10 0:179.46 1:181.795 
10 0:181.795 1:183.15 
10 0:183.15 1:183.905 
-10 0:183.905 1:185.115 
-10 0:185.115 1:186.04 
10 0:186.04 1:183.765 
10 0:183.765 1:183.11 
10 0:183.11 1:184.415 
10 0:184.415 1:185.365 
-10 0:185.365 1:186.325 
10 0:186.325 1:186.29 
10 0:186.29 1:186.695 
10 0:186.695 1:187.02 
-10 0:187.04 1:187.435 
10 0:187.435 1:186.82 
10 0:186.82 1:186.7 
10 0:186.7 1:187.52 
10 0:187.52 1:188.08 
10 0:188.08 1:188.84 
10 0:188.84 1:190.445 
10 0:191.59 1:191.52 
10 0:191.52 1:192.74 
10 0:192.74 1:193.7 
10 0:193.7 1:194.41 
-10 0:194.41 1:196.04 
-10 0:196.04 1:196.33 
0.6645796403305042 0:196.33 1:196.475 
-10 0:196.475 1:196.835 
-10 0:196.835 1:196.94 
10 0:196.94 1:195.95 
10 0:195.95 1:195.915 
-10 0:195.915 1:197.93 
-10 0:197.93 1:199.32 
-10 0:199.32 1:199.225 
-10 0:199.225 1:199.09 
-10 0:199.09 1:199.015 
10 0:199.015 1:198.415 
10 0:198.415 1:199.205 
10 0:199.205 1:200.265 
10 0:200.265 1:201.115 
10 0:201.115 1:202.565 
7.204566621132212 0:202.565 1:203.54 
10 0:203.54 1:204.14 
-10 0:204.14 1:205.14 
-10 0:205.14 1:205.785 
-10 0:205.785 1:206.17 
10 0:205.25 1:204.92 
-10 0:204.92 1:206.485 
10 0:206.485 1:207.02 
10 0:207.02 1:207.715 
-10 0:207.715 1:209.715 
-10 0:209.715 1:210.92 
10 0:211.21 1:211.97 
10 0:211.97 1:211.91 
10 0:211.91 1:214.105 
10 0:214.105 1:217.595 
10 0:217.595 1:220.32 
-10 0:220.32 1:222.135 
-10 0:222.135 1:222.77 
-10 0:222.77 1:221.485 
10 0:221.485 1:219.095 
10 0:219.095 1:219.165 
10 0:219.165 1:219.265 
10 0:219.265 1:221.525 
10 0:221.525 1:224.535 
10 0:224.535 1:226.705 
-10 0:226.705 1:228.92 
-10 0:228.92 1:227.81 
-10 0:227.81 1:227.195 
-10 0:227.195 1:226.38 
-10 0:226.38 1:224.175 
-10 0:224.175 1:222.915 
10 0:222.915 1:221.39 
10 0:221.39 1:221.475 
10 0:221.475 1:221.955 
10 0:221.955 1:223.03 
10 0:223.03 1:227.02 
10 0:227.02 1:231.36 
10 0:231.36 1:234.09 
10 0:234.09 1:235.635 
10 0:235.635 1:238.1 
-10 0:238.1 1:240.35 
10 0:240.35 1:240.74 
10 0:240.74 1:241.66 
-10 0:246.525 1:249.05 
10 0:249.05 1:246.415 
10 0:246.415 1:245.31 
10 0:245.31 1:248.575 
-10 0:251.865 1:252.445 
-10 0:252.445 1:253.27 
-10 0:253.27 1:251.34 
10 0:251.34 1:243.545 
10 0:243.545 1:239.865 
-10 0:239.865 1:242.855 
-10 0:242.855 1:239.34 
10 0:239.34 1:234.1 
-10 0:234.1 1:235.375 
-10 0:235.375 1:235.415 
10 0:235.415 1:234.21 
-10 0:234.21 1:237.285 
-10 0:237.285 1:240.535 
-10 0:240.535 1:235.84 
-10 0:235.84 1:232.28 
-10 0:232.28 1:232.165 
-10 0:232.165 1:223.06 
10 0:223.06 1:212.12 
10 0:212.12 1:214.145 
10 0:214.145 1:219.95 
10 0:219.95 1:221.71 
8.714839644302081 0:221.71 1:225.92 
10 0:225.92 1:227.89 
10 0:227.89 1:227.915 
10 0:227.915 1:230.515 
10 0:230.515 1:232.35 
10 0:232.35 1:233.27 
-10 0:233.27 1:236.25 
-10 0:236.25 1:238.5 
-10 0:238.5 1:238.315 
10 0:238.315 1:237.26 
-10 0:237.26 1:238.11 
-10 0:238.11 1:239.265 
-10 0:239.265 1:235.68 
-10 0:235.68 1:233.28 
10 0:233.28 1:231.78 
10 0:231.78 1:231.65 
-10 0:231.65 1:235.2 
-10 0:235.2 1:236.63 
10 0:236.63 1:234.57 
10 0:234.57 1:236.75 
10 0:236.75 1:241.75 
10 0:241.75 1:242.935 
10 0:242.935 1:245.275 
10 0:245.275 1:247.15 
10 0:247.15 1:248.25 
10 0:248.25 1:253.05 
-10 0:253.05 1:255.86 
10 0:255.86 1:254.275 
10 0:254.275 1:254.75 
10 0:254.75 1:256.03 
10 0:256.03 1:257.99 
-10 0:257.99 1:260.805 
-10 0:260.805 1:259.565 
-10 0:259.565 1:257.495 
-10 0:257.495 1:255.555 
10 0:255.555 1:251.955 
-10 0:251.955 1:251.54 
-10 0:251.54 1:250.475 
10 0:250.475 1:244.145 
10 0:244.145 1:242.42 
10 0:242.42 1:244.105 
10 0:244.105 1:246.055 
10 0:246.055 1:252.225 
10 0:252.225 1:258.025 
-10 0:258.025 1:259.635 
-10 0:259.635 1:259.645 
-10 0:259.645 1:260.59 
10 0:260.59 1:257.75 
10 0:257.75 1:254.325 
-10 0:254.325 1:256.575 
-10 0:256.575 1:258.99 
-10 0:258.99 1:254.355 
-10 0:254.355 1:251.09 
10 0:251.09 1:248.05 
10 0:248.05 1:244.31 
-10 0:244.31 1:247.47 
-10 0:247.47 1:248.8 
-10 0:248.8 1:245.76 
-10 0:245.76 1:241.955 
-10 0:241.955 1:238.345 
-10 0:238.345 1:232.875 
10 0:232.875 1:228.47 
10 0:228.47 1:226.82 
10 0:226.82 1:230.775 
-10 0:230.775 1:236.195 
10 0:236.195 1:234.625 
10 0:234.625 1:235.775 
10 0:235.775 1:240.295 
10 0:240.295 1:241.76 
10 0:241.76 1:242.825 
10 0:242.825 1:245.535 
-10 0:245.535 1:248.33 
-10 0:248.33 1:248.505 
10 0:248.505 1:245.815 
10 0:245.815 1:245.55 
-10 0:245.55 1:247 
-10 0:247 1:246.18 
-10 0:246.18 1:243.355 
10 0:243.355 1:237.915 
10 0:237.915 1:235.49 
10 0:235.49 1:235.525 
10 0:235.525 1:237 
8.971884164687621 0:237 1:242.37 
-10 0:242.37 1:244.31 
-10 0:244.31 1:243.43 
-10 0:243.43 1:242.325 
-10 0:242.325 1:238.285 
-10 0:234.985 1:235.22 
-10 0:235.22 1:233.385 
10 0:233.385 1:230.67 
-10 0:230.67 1:231.435 
-10 0:231.435 1:231 
-10 0:231 1:226.94 
-10 0:226.94 1:223.61 
-10 0:223.61 1:221.86 
10 0:221.86 1:218.39 
8.167746872934844 0:218.39 1:217.35 
-10 0:217.35 1:219.35 
-10 0:219.35 1:216.735 
6.231135038082049 0:216.735 1:209.075 
10 0:209.075 1:205.89 
-10 0:205.89 1:209.215 
-10 0:209.215 1:213.13 
-10 0:213.13 1:210.79 
-10 0:210.79 1:207.66 
10 0:207.66 1:206.15 
10 0:206.15 1:205.635 
10 0:205.635 1:208.425 
-10 0:208.425 1:212.655 
-10 0:212.655 1:216.57 
-10 0:216.57 1:212.915 
10 0:212.915 1:208.965 
10 0:208.965 1:208.285 
10 0:208.285 1:211.88 
-10 0:211.88 1:215.79 
10 0:215.79 1:215.42 
-10 0:215.42 1:216.915 
-10 0:216.915 1:216.105 
10 0:216.105 1:215.11 
10 0:215.11 1:215.055 
10 0:215.055 1:215.4 
10 0:215.4 1:217.145 
-10 0:217.145 1:218.045 
-10 0:218.045 1:219.73 
-10 0:219.73 1:218.72 
-10 0:218.72 1:214.29 
10 0:214.29 1:211.935 
-10 0:211.935 1:212.14 
-10 0:212.14 1:213.53 
-10 0:213.53 1:212.745 
10 0:212.745 1:208.43 
0.1050159567021472 0:208.43 1:207.175 
-10 0:207.175 1:209.275 
-10 0:209.275 1:207.455 
-10 0:207.455 1:203.525 
10 0:203.525 1:201.155 
10 0:201.155 1:200.735 
10 0:200.735 1:204.135 
10 0:204.135 1:206.55 
10 0:206.55 1:208.155 
10 0:208.155 1:210.345 
10 0:210.345 1:212.365 
10 0:214.07 1:214.13 
10 0:214.13 1:215.535 
10 0:215.535 1:217.435 
10 0:217.435 1:217.73 
10 0:217.73 1:220.785 
-10 0:220.785 1:225.375 
-10 0:225.375 1:226.97 
-10 0:226.97 1:227.37 
10 0:227.37 1:226.445 
10 0:226.445 1:225.77 
-10 0:225.77 1:227.62 
-10 0:227.62 1:226.67 
10 0:226.67 1:224.025 
10 0:224.025 1:224.435 
10 0:224.435 1:226.17 
10 0:226.17 1:227.115 
-10 0:229.18 1:230.165 
10 0:230.165 1:229.89 
10 0:229.89 1:230.665 
-10 0:230.665 1:232.665 
-10 0:232.665 1:234.765 
10 0:234.765 1:234.105 
10 0:234.105 1:234.12 
8.89016347076635 0:234.12 1:236.59 
-10 0:236.59 1:238.855 
-10 0:238.855 1:239.095 
-10 0:239.095 1:238.015 
10 0:238.015 1:235.675 
10 0:235.675 1:235.5 
10 0:235.5 1:237.03 
10 0:237.03 1:240.075 
-10 0:240.075 1:243.325 
-10 0:243.325 1:243.105 
-10 0:243.105 1:241.645 
-10 0:241.645 1:238.885 
-10 0:238.885 1:236.23 
-10 0:236.23 1:234.725 
8.243534036220087 0:234.725 1:232.285 
10 0:232.285 1:232.2 
10 0:232.2 1:232.57 
10 0:232.57 1:233.78 
-10 0:233.78 1:236.925 
-10 0:236.925 1:237.12 
-10 0:237.12 1:234.96 
-10 0:234.96 1:234.115 
-10 0:234.115 1:234.925 
-10 0:234.925 1:233.055 
-10 0:233.055 1:228.955 
-10 0:228.955 1:226.99 
10 0:226.99 1:224.295 
10 0:224.295 1:221.98 
-10 0:223.85 1:224.285 
-10 0:224.285 1:225.13 
-10 0:225.13 1:224.315 
-10 0:224.315 1:221.3 
-10 0:221.3 1:219.54 
10 0:219.54 1:218.24 
-10 0:218.24 1:218.46 
-10 0:218.46 1:219.035 
-10 0:219.035 1:216.855 
-10 0:216.855 1:214.055 
-10 0:214.055 1:213.27 
-10 0:213.27 1:210.49 
-10 0:210.49 1:206.835 
-10 0:206.835 1:203.725 
-10 0:203.725 1:202.04 
-10 0:202.04 1:199.43 
10 0:199.43 1:195.565 
10 0:195.565 1:195.475 
-10 0:195.475 1:198.23 
-10 0:198.23 1:199.62 
-10 0:199.62 1:196.065 
10 0:196.065 1:192.745 
10 0:192.745 1:193.685 
10 0:193.685 1:193.875 
10 0:193.875 1:196.43 
10 0:196.43 1:199.885 
10 0:199.885 1:201.705 
-10 0:201.705 1:205.99 
-10 0:205.99 1:206.305 
-10 0:206.305 1:204.12 
3.119620832196118 0:204.12 1:201.935 
10 0:201.935 1:200.86 
-10 0:200.86 1:202.97 
-10 0:202.97 1:202.775 
-10 0:202.775 1:199.495 
10 0:199.495 1:197 
10 0:197 1:199.36 
-10 0:199.36 1:201.295 
10 0:201.295 1:200.535 
-10 0:200.535 1:201.59 
-10 0:201.59 1:202.27 
-10 0:202.27 1:201.19 
-10 0:201.19 1:200.88 
-10 0:200.88 1:201.235 
-10 0:201.235 1:199.265 
-10 0:199.265 1:197.455 
-10 0:197.455 1:195.6 
-4.159953818048636 0:195.6 1:192.945 
-10 0:192.945 1:192.515 
-10 0:192.515 1:192.175 
-10 0:192.175 1:191.48 
-10 0:191.48 1:190.175 
-10 0:190.175 1:188.855 
-10 0:188.855 1:185.545 
10 0:185.545 1:182.27 
-10 0:182.27 1:183.385 
10 0:183.385 1:183.965 
10 0:183.965 1:182.03 
10 0:182.03 1:185.23 
-10 0:185.23 1:188.48 
10 0:188.48 1:187.745 
-10 0:187.745 1:186.885 
-10 0:186.885 1:187.585 
-10 0:187.585 1:184.45 
10 0:184.45 1:181.27 
10 0:181.27 1:181.395 
10 0:181.395 1:183.78 
-10 0:183.78 1:188.735 
10 0:188.735 1:190.37 
-10 0:190.37 1:192.38 
-10 0:192.38 1:193.525 
-10 0:193.525 1:192.235 
-10 0:192.235 1:189.35 
-10 0:189.35 1:187.36 
-10 0:187.36 1:186.07 
-10 0:186.07 1:184.11 
-10 0:184.11 1:178.865 
-10 0:178.865 1:175.745 
-10 0:175.745 1:171.81 
-10 0:171.81 1:168.01 
10 0:168.01 1:165.455 
10 0:165.455 1:164.98 
-10 0:164.98 1:173.03 
-10 0:173.03 1:176.215 
-10 0:176.215 1:165.955 
-10 0:165.955 1:155.345 
-10 0:155.345 1:155.285 
-10 0:155.285 1:156.655 
-10 0:156.655 1:151.965 
-10 0:151.965 1:142.8 
-10 0:142.8 1:130.37 
-10 0:130.37 1:124.6 
-10 0:124.6 1:129.175 
7.564773342204673 0:129.175 1:130.55 
10 0:130.55 1:136.55 
-10 0:136.55 1:145.96 
10 0:145.96 1:148.155 
-10 0:148.155 1:150.22 
-10 0:150.22 1:153.28 
-10 0:153.28 1:149.15 
10 0:149.15 1:145.905 
-10 0:145.905 1:149.64 
-10 0:149.64 1:149.255 
-10 0:149.255 1:147.47 
-10 0:147.47 1:144.985 
-10 0:144.985 1:142.48 
-10 0:142.48 1:141.415 
-10 0:141.415 1:137.725 
-10 0:137.725 1:133.605 
-10 0:133.605 1:127.935 
-10 0:127.935 1:127.15 
-10 0:127.15 1:128.39 
-10 0:128.39 1:127.015 
-10 0:127.015 1:131.255 
-10 0:131.255 1:136.835 
-10 0:136.835 1:139.915 
-10 0:139.915 1:139.495 
-10 0:139.495 1:136.015 
-10 0:136.015 1:133.66 
10 0:133.66 1:132.525 
10 0:132.525 1:132.88 
-10 0:139.61 1:145.045 
-10 0:145.045 1:147.965 
-10 0:147.965 1:151.33 
10 0:151.33 1:148.155 
10 0:148.155 1:147.905 
-10 0:147.905 1:151.39 
10 0:151.39 1:151.985 
10 0:151.985 1:152.93 
-10 0:152.93 1:153.67 
-10 0:153.67 1:154.04 
-10 0:154.04 1:151.455 
-10 0:151.455 1:147.975 
4.827648105815143 0:147.975 1:146.415 
10 0:146.415 1:145.765 
10 0:145.765 1:146.035 
10 0:146.035 1:148.75 
10 0:148.75 1:152.49 
10 0:152.49 1:155.31 
-10 0:155.31 1:159.075 
-10 0:159.075 1:159.56 
-10 0:159.56 1:155.965 
10 0:155.965 1:152.59 
10 0:152.59 1:151.73 
-10 0:151.73 1:153.475 
-10 0:153.475 1:149.775 
10 0:149.775 1:146.54 
-10 0:146.54 1:149.025 
-10 0:149.025 1:148.285 
-10 0:148.285 1:144.92 
10 0:144.92 1:144.2 
10 0:144.2 1:143.43 
10 0:143.43 1:146.395 
-10 0:146.395 1:151.665 
-10 0:151.665 1:151.81 
10 0:151.81 1:150.165 
10 0:150.165 1:150.21 
9.987836521362887 0:150.21 1:153.705 
10 0:153.705 1:154.995 
10 0:154.995 1:156.45 
-10 0:156.45 1:158.3 
-10 0:158.3 1:157.27 
-10 0:157.27 1:156.05 
10 0:156.05 1:154.46 
-10 0:154.46 1:154.425 
-10 0:154.425 1:153.925 
-10 0:153.925 1:149.63 
-10 0:149.63 1:145.405 
-10 0:145.405 1:143.905 
-10 0:143.905 1:140.955 
10 0:140.955 1:140.545 
-10 0:140.545 1:140.3 
10 0:140.3 1:138.235 
-10 0:138.235 1:137.815 
-10 0:137.815 1:137.525 
5.475556248142921 0:137.525 1:135.27 
10 0:135.27 1:133.125 
-10 0:133.125 1:135.995 
10 0:138.23 1:138.04 
10 0:138.04 1:138.915 
10 0:138.915 1:141.365 
9.382138536394818 0:141.365 1:145.165 
-10 0:145.165 1:147.81 
10 0:147.81 1:147.655 
10 0:147.655 1:147.145 
10 0:147.145 1:149.585 
-10 0:149.585 1:152.53 
10 0:152.53 1:152.2 
10 0:152.2 1:152.045 
10 0:152.045 1:154.5 
2.787453112366873 0:154.5 1:157.99 
10 0:157.99 1:159.92 
-10 0:159.92 1:161.25 
-10 0:161.25 1:161.94 
-10 0:161.94 1:158.945 
10 0:158.945 1:156.62 
10 0:156.62 1:158.735 
10 0:158.735 1:163.32 
-10 0:163.32 1:166.645 
-10 0:166.645 1:167.865 
-10 0:167.865 1:168.48 
10 0:168.48 1:165.51 
10 0:165.51 1:166.08 
-10 0:166.08 1:170.745 
-10 0:170.745 1:171.85 
-10 0:171.85 1:171.86 
-10 0:171.86 1:171.62 
-0.4331003302574174 0:171.47 1:171.53 
10 0:171.53 1:171.815 
10 0:171.815 1:172.13 
10 0:172.13 1:173.18 
-10 0:173.18 1:175.27 
-10 0:175.27 1:175.135 
-10 0:175.135 1:173.13 
10 0:173.13 1:169.685 
10 0:169.685 1:169.66 
10 0:169.66 1:174.04 
-10 0:174.04 1:177.845 
-10 0:177.845 1:179.255 
10 0:179.255 1:179.28 
-10 0:179.28 1:180.39 
-10 0:180.39 1:181.195 
-10 0:181.195 1:180.54 
-10 0:180.54 1:180.435 
-10 0:180.435 1:178.715 
10 0:178.715 1:177.045 
10 0:177.045 1:177.53 
10 0:177.53 1:180.01 
-10 0:180.01 1:183.28 
-10 0:183.28 1:182.81 
-10 0:182.81 1:180.415 
-10 0:180.415 1:178.79 
10 0:178.79 1:176.67 
10 0:176.67 1:174.26 
10 0:174.26 1:175.97 
-1.576357857787467 0:175.97 1:178.445 
10 0:178.445 1:179.8 
-10 0:179.8 1:180.685 
-10 0:180.685 1:180.39 
10 0:180.39 1:178.03 
10 0:178.03 1:176.76 
-10 0:176.76 1:177.72 
10 0:177.72 1:176.29 
10 0:176.29 1:177.91 
-10 0:177.91 1:181.17 
-10 0:181.17 1:182.06 
-10 0:182.06 1:181.675 
-10 0:181.675 1:179.77 
-10 0:179.77 1:178.34 
10 0:178.34 1:176.67 
10 0:176.67 1:176.085 
-10 0:176.085 1:177.825 
10 0:177.825 1:176.67 
10 0:176.67 1:174.7 
10 0:174.7 1:176.97 
-10 0:176.97 1:179.07 
10 0:179.07 1:179.045 
10 0:179.045 1:178.9 
10 0:178.9 1:180.47 
10 0:180.47 1:181.9 
10 0:181.9 1:182.385 
10 0:182.385 1:183.71 
-10 0:183.71 1:184.805 
-10 0:184.92 1:184.725 
-10 0:184.725 1:184.64 
10 0:184.64 1:181.355 
10 0:181.355 1:178.79 
10 0:178.79 1:181.845 
10 0:181.845 1:185.24 
10 0:185.24 1:186.69 
10 0:186.69 1:189.705 
-10 0:189.705 1:192.935 
10 0:193.955 1:194.345 
10 0:194.345 1:194.765 
10 0:194.765 1:196.6 
-10 0:196.6 1:198.295 
10 0:198.295 1:198.38 
10 0:198.38 1:199.06 
10 0:199.06 1:201.42 
-10 0:201.42 1:203.385 
-10 0:203.385 1:203.955 
-10 0:203.955 1:203.645 
10 0:203.645 1:203.465 
-10 0:203.465 1:204.345 
-10 0:204.345 1:204.86 
-10 0:204.86 1:204.865 
-10 0:204.865 1:203.815 
10 0:203.815 1:202.565 
-10 0:202.565 1:204.46 
-10 0:204.46 1:203.49 
10 0:203.49 1:200.925 
10 0:200.925 1:201.205 
10 0:201.205 1:203.15 
10 0:203.15 1:205.74 
-10 0:205.74 1:208.43 
-10 0:208.43 1:209.86 
-10 0:209.86 1:209.87 
-10 0:209.87 1:209.62 
10 0:209.18 1:208.59 
10 0:208.59 1:209.665 
-10 0:209.665 1:211.2 
-10 0:211.2 1:210.555 
-10 0:210.555 1:210.205 
10 0:210.205 1:209.77 
10 0:209.77 1:210.565 
10 0:210.565 1:210.745 
10 0:210.745 1:212.505 
-10 0:212.505 1:215.365 
10 0:215.365 1:214.615 
10 0:214.615 1:214.78 
10 0:214.78 1:218.335 
-10 0:218.335 1:221.42 
10 0:221.42 1:222.325 
10 0:222.325 1:222.095 
-10 0:222.095 1:223.56 
-10 0:223.56 1:224.98 
-10 0:224.98 1:223.52 
-10 0:223.52 1:222.085 
-10 0:220.74 1:220.625 
-10 0:220.625 1:220.67 
-10 0:220.67 1:217.845 
-10 0:217.845 1:213.16 
10 0:213.16 1:209.815 
10 0:209.815 1:209.095 
10 0:209.095 1:209.975 
-10 0:209.975 1:213.29 
-10 0:213.29 1:214.9 
10 0:214.9 1:213.665 
10 0:213.665 1:214.5 
-10 0:214.5 1:216.685 
-10 0:216.685 1:216.19 
10 0:216.19 1:215.55 
-10 0:215.55 1:216.86 
-10 0:216.86 1:217.085 
10 0:217.085 1:214.945 
10 0:214.945 1:213.99 
-10 0:213.99 1:216.09 
-10 0:216.09 1:216.96 
-10 0:216.96 1:213.75 
-10 0:213.75 1:209.355 
-10 0:209.355 1:207.245 
-10 0:207.245 1:205.53 
10 0:205.53 1:203.69 
-10 0:203.69 1:205.155 
-10 0:205.155 1:205.35 
10 0:205.35 1:205.025 
10 0:205.025 1:206.91 
-10 0:206.91 1:207.76 
-10 0:207.76 1:209.155 
-10 0:209.155 1:208.375 
10 0:208.375 1:206.755 
10 0:206.755 1:208.37 
10 0:208.37 1:209.45 
10 0:209.45 1:210.28 
-10 0:210.28 1:212.725 
-10 0:212.725 1:213.825 
-10 0:213.825 1:213.74 
-10 0:213.74 1:212.82 
-10 0:212.82 1:212.265 
-10 0:212.265 1:211.69 
-10 0:211.69 1:205.75 
10 0:205.75 1:202.74 
10 0:202.74 1:205.91 
10 0:205.91 1:208.66 
10 0:208.66 1:211.78 
-10 0:211.78 1:213.905 
-10 0:213.905 1:215.025 
10 0:215.025 1:215.23 
10 0:215.23 1:215.33 
10 0:215.33 1:217.24 
-10 0:217.24 1:218.75 
-10 0:218.75 1:219.14 
-10 0:219.14 1:219.555 
-10 0:219.555 1:219.46 
-10 0:219.46 1:218.11 
10 0:218.11 1:216.79 
10 0:216.79 1:216.44 
10 0:216.44 1:217.035 
10 0:217.035 1:218.41 
-10 0:218.41 1:220.31 
-10 0:220.31 1:221.85 
10 0:221.85 1:221.185 
10 0:221.185 1:221.1 
-10 0:222.675 1:223.165 
-10 0:223.165 1:223.755 
-10 0:223.755 1:222.99 
10 0:222.99 1:221.985 
-10 0:221.985 1:222.445 
-10 0:222.445 1:222.635 
10 0:222.635 1:221.105 
10 0:221.105 1:220.18 
10 0:220.18 1:222.2 
-10 0:222.2 1:223.795 
10 0:223.795 1:224.255 
-10 0:224.255 1:224.48 
-10 0:224.48 1:225.495 
-10 0:225.495 1:223.42 
-10 0:223.42 1:220.005 
-10 0:220.005 1:217.11 
-4.345062170403056 0:217.11 1:213.955 
-10 0:213.955 1:214.345 
-10 0:214.345 1:213.005 
10 0:213.005 1:210.55 
10 0:210.55 1:210.015 
-10 0:210.015 1:210.565 
-10 0:210.565 1:211.79 
-10 0:211.79 1:208.39 
10 0:208.39 1:204.215 
10 0:204.215 1:204.69 
10 0:204.69 1:205.975 
2.051316565515944 0:207.835 1:209.235 
10 0:209.235 1:209.235 
-10 0:209.235 1:211.585 
-10 0:211.585 1:212.995 
10 0:212.995 1:210.625 
10 0:210.625 1:210.99 
-10 0:210.99 1:213.365 
-10 0:213.365 1:212.185 
10 0:212.185 1:209.24 
10 0:209.24 1:207.96 
10 0:207.96 1:209.9 
-10 0:209.9 1:211.9 
10 0:211.9 1:212.135 
10 0:212.135 1:212.98 
10 0:212.98 1:215.89 
-10 0:215.89 1:217.775 
-10 0:217.775 1:217.82 
-10 0:217.82 1:217.29 
-10 0:217.29 1:217.055 
10 0:217.055 1:216.42 
10 0:216.42 1:215.37 
10 0:215.37 1:217.765 
-10 0:217.765 1:219.65 
-10 0:219.65 1:219.75 
-10 0:219.75 1:219.5 
10 0:219.5 1:219.305 
10 0:219.305 1:220.09 
10 0:220.09 1:220.58 
-10 0:220.58 1:221.66 
-10 0:221.66 1:221.925 
10 0:221.925 1:222.04 
10 0:222.04 1:222.03 
10 0:222.03 1:223.525 
-10 0:223.525 1:226.08 
-9.454269192482002 0:226.08 1:227.085 
10 0:227.495 1:227.41 
-10 0:227.41 1:227.79 
-10 0:227.79 1:227.54 
10 0:227.54 1:225.7 
10 0:225.7 1:224.64 
10 0:224.64 1:226.385 
-10 0:226.385 1:228.625 
-10 0:228.625 1:228.43 
10 0:228.43 1:225.67 
10 0:225.67 1:224.39 
-10 0:224.39 1:227.11 
-10 0:227.11 1:228.425 
10 0:228.425 1:227.56 
-10 0:227.56 1:228.5 
-10 0:228.5 1:229.46 
-10 0:229.46 1:228.13 
10 0:228.13 1:226.545 
-10 0:226.545 1:227.03 
-10 0:227.03 1:226.525 
-10 0:226.525 1:224.93 
-10 0:224.93 1:222.485 
10 0:222.485 1:217.65 
10 0:217.65 1:217.095 
-10 0:217.095 1:218.365 
10 0:218.365 1:217.205 
-10 0:217.205 1:218.79 
-10 0:218.79 1:220.94 
-10 0:220.94 1:218.22 
-10 0:218.22 1:214.89 
-10 0:214.89 1:213.425 
-10 0:213.425 1:210.605 
-10 0:210.605 1:209.525 
-10 0:209.525 1:207.55 
10 0:207.55 1:205.725 
10 0:205.725 1:208.225 
10 0:208.225 1:210.965 
10 0:210.965 1:213.22 
10 0:213.22 1:213.68 
10 0:213.68 1:215.3 
-10 0:215.3 1:217.805 
-10 0:217.805 1:216.205 
10 0:216.205 1:215.23 
10 0:215.23 1:215.67 
10 0:215.67 1:215.495 
10 0:215.495 1:217.475 
-10 0:217.475 1:220.325 
10 0:220.325 1:221.385 
10 0:221.385 1:222.34 
10 0:222.34 1:223.395 
10 0:223.395 1:223.61 
-10 0:223.61 1:225.73 
-10 0:225.73 1:227.07 
10 0:227.07 1:226.02 
-10 0:226.02 1:226.52 
-10 0:226.52 1:226.54 
-10 0:226.54 1:225.59 
-10 0:225.59 1:224.045 
-10 0:224.045 1:221.695 
-10 0:221.695 1:219.75 
10 0:219.75 1:217.83 
10 0:217.83 1:217.24 
-10 0:217.24 1:218.295 
10 0:218.295 1:218.285 
10 0:218.285 1:219.115 
10 0:219.115 1:222.61 
10 0:222.61 1:225.15 
10 0:225.15 1:226 
-10 0:226 1:227.705 
-10 0:227.705 1:228.83 
-10 0:228.83 1:227.365 
10 0:227.365 1:225.83 
10 0:225.83 1:225.58 
10 0:225.58 1:226.86 
10 0:226.86 1:227.055 
10 0:227.055 1:227.865 
-10 0:227.865 1:230.185 
-10 0:230.185 1:230.9 
-10 0:230.9 1:231.245 
-10 0:231.245 1:231.36 
10 0:231.36 1:230.205 
10 0:230.205 1:230.735 
-10 0:230.735 1:232.8 
-10 0:232.8 1:233.26 
-10 0:233.26 1:232.765 
-10 0:232.765 1:232.37 
-10 0:232.37 1:232.745 
-10 0:232.745 1:232.59 
-10 0:232.59 1:230.51 
10 0:230.51 1:226.47 
10 0:226.47 1:225.485 
10 0:225.485 1:226.76 
10 0:226.76 1:227.235 
10 0:227.235 1:228.43 
-10 0:228.43 1:230.39 
-10 0:230.39 1:231.525 
-10 0:231.525 1:230.685 
-10 0:230.685 1:229.81 
-10 0:229.81 1:227.705 
10 0:227.705 1:225.69 
10 0:225.69 1:225.455 
10 0:227.575 1:228.22 
10 0:228.22 1:228.11 
10 0:228.11 1:230.035 
10 0:230.035 1:230.85 
-10 0:230.85 1:231.905 
-10 0:231.905 1:232.61 
10 0:232.61 1:231.695 
10 0:231.695 1:231.235 
10 0:231.235 1:232.73 
-10 0:232.73 1:235.135 
-10 0:235.135 1:236.16 
-10 0:236.16 1:236.56 
10 0:236.255 1:236.505 
10 0:236.505 1:237.965 
10 0:237.965 1:239.045 
-10 0:239.045 1:240.59 
10 0:240.59 1:240.985 
10 0:240.985 1:241.43 
-10 0:241.43 1:242.61 
-10 0:242.61 1:243.22 
10 0:243.22 1:243.74 
10 0:243.74 1:244.105 
-10 0:245.96 1:247.46 
-10 0:247.46 1:246.865 
-10 0:246.865 1:245.975 
10 0:245.975 1:243.895 
10 0:243.895 1:242.67 
-10 0:242.67 1:244.62 
-10 0:244.62 1:246.405 
-10 0:246.405 1:244.6 
10 0:244.6 1:241.375 
10 0:241.375 1:240.95 
10 0:240.95 1:242.16 
10 0:242.16 1:244.185 
-10 0:244.185 1:247 
-10 0:247 1:248.27 
-10 0:248.27 1:247.495 
-10 0:247.495 1:246.51 
10 0:246.51 1:244.695 
10 0:244.695 1:245.195 
10 0:245.195 1:247.67 
10 0:247.67 1:248.96 
10 0:250.555 1:251.17 
10 0:251.17 1:251.475 
-10 0:251.475 1:251.9 
-10 0:251.9 1:253.6 
-10 0:253.6 1:251.32 
10 0:251.32 1:247.93 
-10 0:247.93 1:248.785 
10 0:248.785 1:248.53 
10 0:248.53 1:247.57 
10 0:247.57 1:249.225 
-10 0:252.095 1:253.52 
7.852211249066984 0:253.06 1:252.25 
-10 0:252.25 1:252.415 
-10 0:252.415 1:250.88 
10 0:250.88 1:249.115 
10 0:249.115 1:249.28 
10 0:249.28 1:251.22 
10 0:251.22 1:254.41 
10 0:257.485 1:257.975 
10 0:257.975 1:258.07 
10 0:258.07 1:259.915 
10 0:259.915 1:262.03 
10 0:262.03 1:262.525 
10 0:262.525 1:264.22 
10 0:264.22 1:265.54 
10 0:265.54 1:265.435 
10 0:265.435 1:266.295 
10 0:266.295 1:267.545 
10 0:267.545 1:268.365 
-10 0:268.365 1:269.455 
-10 0:269.455 1:269.61 
-10 0:269.61 1:269.06 
10 0:269.06 1:267.925 
10 0:267.925 1:268.195 
10 0:268.195 1:269.74 
10 0:269.74 1:270.815 
10 0:270.815 1:272.5 
-10 0:272.5 1:274.795 
-10 0:274.795 1:275.565 
-10 0:275.565 1:275.035 
-10 0:275.035 1:275.165 
-10 0:275.165 1:274.8 
10 0:274.8 1:274.545 
10 0:275.635 1:275.845 
-10 0:275.845 1:276.845 
-10 0:276.845 1:277.61 
10 0:277.61 1:276.825 
-10 0:276.825 1:277.925 
-10 0:277.925 1:278.5 
10 0:278.5 1:275.21 
10 0:275.21 1:273.585 
10 0:273.585 1:274.84 
10 0:274.84 1:276.995 
-10 0:276.995 1:279.005 
-10 0:279.005 1:278.825 
10 0:275.785 1:273.285 
-10 0:273.285 1:274.175 
-10 0:274.175 1:274.03 
-10 0:274.03 1:271.53 
10 0:267.235 1:262.485 
10 0:262.485 1:263.21 
-10 0:263.21 1:265.71 
10 0:263.98 1:261.895 
-10 0:261.895 1:263.515 
-10 0:263.515 1:265.175 
-10 0:265.175 1:262.34 
10 0:262.34 1:259.67 
6.085740036905341 0:259.67 1:258.45 
-10 0:258.45 1:258.485 
-10 0:258.485 1:257.82 
10 0:257.82 1:255.66 
10 0:255.66 1:257.72 
10 0:257.72 1:262.95 
-10 0:262.95 1:263.43 
10 0:263.43 1:262.385 
-10 0:262.385 1:263.565 
-10 0:263.565 1:262.195 
10 0:262.195 1:258.71 
-10 0:258.71 1:258.76 
10 0:258.76 1:257.49 
10 0:257.49 1:256.865 
10 0:256.865 1:259.62 
10 0:259.62 1:261.095 
10 0:261.095 1:263.64 
10 0:263.64 1:265.47 
10 0:265.47 1:265.86 
10 0:265.86 1:267.3 
10 0:267.3 1:270.295 
10 0:270.295 1:271.895 
10 0:271.895 1:273.175 
10 0:273.175 1:275.63 
10 0:275.63 1:277.955 
10 0:277.955 1:279.8 
10 0:279.8 1:280.37 
10 0:280.37 1:281.02 
-0.4778412519770553 0:281.02 1:281.69 
10 0:281.69 1:280.9 
-10 0:280.9 1:280.75 
-10 0:280.75 1:280.77 
10 0:280.77 1:278.31 
10 0:278.31 1:278.405 
10 0:278.405 1:281.915 
-10 0:281.915 1:282.975 
10 0:282.975 1:282.47 
10 0:282.47 1:281.285 
10 0:281.285 1:283.81 
10 0:283.81 1:289.175 
10 0:289.175 1:291 
10 0:291 1:291.765 
10 0:291.765 1:292.035 
10 0:292.035 1:291.73 
10 0:291.73 1:292.115 
10 0:292.115 1:291.27 
10 0:291.27 1:292.87 
10 0:292.87 1:293.5 
-0.1601618572547716 0:293.5 1:290.055 
-7.835315585038946 0:290.055 1:286.07 
10 0:286.07 1:283.135 
-10 0:283.135 1:284.445 
-10 0:284.445 1:283.16 
10 0:283.16 1:279.805 
10 0:279.805 1:278.405 
10 0:278.405 1:277.185 
-10 0:277.185 1:279.455 
-10 0:279.455 1:279.115 
-10 0:279.115 1:277.53 
-10 0:277.53 1:274.89 
10 0:274.89 1:271.485 
10 0:271.485 1:270.2 
10 0:270.2 1:272.475 
10 0:272.475 1:276.84 
10 0:276.84 1:276.835 
10 0:276.835 1:279.54 
-10 0:279.54 1:282.755 
-10 0:282.755 1:280.755 
-10 0:280.755 1:278.8 
-10 0:278.8 1:277.905 
-10 0:277.905 1:275.715 
-10 0:275.715 1:273.45 
10 0:273.45 1:270.74 
10 0:270.74 1:269.415 
8.175955739115574 0:269.415 1:271.73 
-10 0:271.73 1:274.1 
-10 0:274.1 1:271.705 
10 0:271.705 1:267.55 
10 0:267.55 1:265.305 
10 0:265.305 1:266.52 
10 0:266.52 1:269.68 
10 0:269.68 1:270.025 
-10 0:270.025 1:271.825 
-10 0:271.825 1:272.875 
10 0:272.875 1:270.925 
10 0:270.925 1:272.51 
10 0:272.51 1:274.89 
10 0:274.89 1:276.97 
10 0:276.97 1:280.22 
10 0:280.22 1:282.775 
10 0:282.775 1:284.5 
-10 0:284.5 1:285.595 
-10 0:285.595 1:286.06 
-10 0:286.06 1:284.255 
10 0:284.255 1:279.18 
10 0:279.18 1:277.11 
-10 0:277.11 1:278.175 
-10 0:278.175 1:278.81 
10 0:278.15 1:276.645 
10 0:276.645 1:278.495 
10 0:278.495 1:279.805 
10 0:279.805 1:280.895 
10 0:280.895 1:281.125 
10 0:281.125 1:280.85 
-10 0:280.85 1:282.37 
-10 0:282.37 1:281.37 
10 0:281.37 1:278.575 
-10 0:278.575 1:279.735 
-10 0:279.735 1:278.88 
-10 0:278.88 1:271.6 
-10 0:271.6 1:264.67 
-10 0:264.67 1:256.72 
10 0:247.175 1:237.985 
10 0:237.985 1:233.375 
10 0:233.375 1:233.685 
10 0:233.685 1:232.26 
10 0:232.26 1:236.305 
-10 0:236.305 1:242.83 
-10 0:242.83 1:240.87 
-10 0:240.87 1:230.645 
10 0:230.645 1:221.065 
10 0:221.065 1:223.635 
-10 0:223.635 1:226.63 
10 0:226.63 1:226.08 
10 0:226.08 1:228.01 
10 0:228.01 1:232.39 
10 0:232.39 1:236.71 
-10 0:236.71 1:239.9 
-10 0:239.9 1:242.265 
-10 0:242.265 1:241.265 
3.039310423935468 0:241.265 1:234.525 
10 0:234.525 1:227.77 
10 0:227.77 1:231.385 
-10 0:231.385 1:237.295 
-10 0:237.295 1:235.935 
10 0:235.935 1:229.275 
10 0:229.275 1:226.865 
10 0:226.865 1:233.04 
-10 0:233.04 1:236.41 
-10 0:236.41 1:236.425 
-10 0:236.425 1:238.52 
-10 0:238.52 1:235.78 
-5.188030523209 0:235.78 1:225.335 
10 0:225.335 1:216.4 
10 0:216.4 1:219.735 
10 0:219.735 1:224.555 
-10 0:224.555 1:227.095 
-10 0:227.095 1:230.39 
-10 0:230.39 1:226.17 
10 0:226.17 1:219.635 
10 0:219.635 1:220.64 
10 0:220.64 1:227.105 
10 0:227.105 1:230.545 
10 0:230.545 1:232.81 
10 0:232.81 1:235.73 
10 0:235.73 1:237.375 
10 0:237.375 1:238.88 
-10 0:238.88 1:241.58 
-10 0:241.58 1:241.69 
-10 0:241.69 1:241 
10 0:241 1:238.84 
10 0:238.84 1:237.795 
10 0:237.795 1:244.115 
-10 0:244.115 1:247.705 
10 0:247.705 1:247.38 
10 0:247.38 1:249.38 
-10 0:249.38 1:251.835 
-10 0:251.835 1:251.175 
-10 0:251.175 1:249.9 
-10 0:249.9 1:248.975 
10 0:248.975 1:246.06 
10 0:246.06 1:248.215 
-10 0:248.215 1:251.56 
-10 0:251.56 1:249.55 
-10 0:249.55 1:248.775 
10 0:248.775 1:242.625 
10 0:242.625 1:239.505 
-10 0:239.505 1:245.63 
-10 0:245.63 1:247.24 
-10 0:247.24 1:244.095 
-10 0:244.095 1:243.29 
-10 0:243.29 1:242.015 
-10 0:242.015 1:238.035 
-10 0:238.035 1:237.22 
-10 0:237.22 1:234.74 
10 0:234.74 1:232.515 
10 0:232.515 1:232.19 
10 0:232.19 1:233.81 
10 0:233.81 1:239.545 
10 0:239.545 1:241.845 
10 0:241.845 1:246.355 
-10 0:246.355 1:251.355 
-10 0:251.355 1:251.705 
10 0:251.705 1:250.85 
-10 0:250.85 1:250.525 
-10 0:250.525 1:250.94 
10 0:250.94 1:247.62 
-10 0:247.62 1:246.74 
-10 0:246.74 1:246.015 
-10 0:246.015 1:242.915 
-10 0:242.915 1:239.535 
-10 0:239.535 1:238.27 
10 0:238.27 1:235.78 
10 0:235.78 1:232.785 
10 0:232.785 1:237.67 
-10 0:237.67 1:241.455 
-10 0:241.455 1:242.81 
-10 0:242.81 1:243.43 
-10 0:243.43 1:241.715 
-10 0:241.715 1:239.47 
10 0:239.47 1:238.115 
10 0:238.115 1:238.39 
10 0:238.39 1:242.26 
-10 0:242.26 1:245.03 
-10 0:245.03 1:243.9 
-10 0:243.9 1:242.065 
10 0:242.065 1:239.295 
10 0:239.295 1:239.855 
10 0:239.855 1:241.26 
10 0:241.26 1:242.145 
-10 0:242.145 1:244.37 
10 0:244.37 1:244.19 
10 0:244.19 1:245.455 
10 0:245.455 1:247.815 
10 0:247.815 1:249.545 
10 0:249.545 1:253.94 
-10 0:253.94 1:256.875 
-10 0:256.875 1:257.33 
-10 0:257.33 1:258.085 
10 0:258.085 1:256.93 
10 0:256.93 1:256.055 
10 0:256.055 1:256.98 
-10 0:256.98 1:258.705 
-10 0:258.705 1:259.44 
10 0:259.44 1:258.73 
10 0:258.73 1:259.365 
10 0:259.365 1:261.37 
-10 0:261.37 1:263.72 
-10 0:263.72 1:262.835 
10 0:262.835 1:261.96 
10 0:261.96 1:262.565 
-10 0:262.565 1:264.13 
10 0:264.13 1:263.885 
10 0:263.885 1:263.855 
-10 0:263.855 1:265.885 
-10 0:265.885 1:265.92 
-10 0:265.92 1:266.26 
-10 0:266.26 1:265.105 
-10 0:265.105 1:264.39 
10 0:264.39 1:263.25 
10 0:263.25 1:262.375 
10 0:262.375 1:265.29 
-10 0:265.29 1:267.29 
-10 0:267.29 1:266.1 
-10 0:266.1 1:263.8 
10 0:263.8 1:261.6 
10 0:261.6 1:261.6 
10 0:261.6 1:264.235 
10 0:264.235 1:264.68 
10 0:264.68 1:265.32 
10 0:265.32 1:268.375 
-10 0:268.375 1:269.805 
10 0:269.805 1:269.015 
-10 0:269.015 1:269.27 
-10 0:269.27 1:269.975 
-10 0:269.975 1:268.735 
10 0:267.885 1:267.965 
10 0:267.965 1:267.68 
-10 0:267.68 1:269.06 
-10 0:269.06 1:270.175 
-9.672756663415891 0:270.175 1:268.385 
10 0:268.385 1:266.855 
10 0:266.855 1:267.785 
-10 0:267.785 1:270.725 
-10 0:270.725 1:270.395 
-10 0:270.395 1:269.145 
-10 0:269.145 1:269.965 
-10 0:269.965 1:267.925 
10 0:267.925 1:265.63 
10 0:265.63 1:264.665 
-10 0:264.665 1:265.405 
-10 0:265.405 1:265.675 
10 0:265.675 1:263.905 
-10 0:263.905 1:264.77 
-10 0:264.77 1:265.9 
-10 0:265.9 1:263.71 
10 0:263.71 1:261.75 
-10 0:261.75 1:261.21 
10 0:261.21 1:260.79 
10 0:260.79 1:261.165 
10 0:261.165 1:262.47 
10 0:262.47 1:263.89 
-10 0:263.89 1:265.48 
-10 0:265.48 1:266.33 
-10 0:266.33 1:265.225 
6.380584893532461 0:265.225 1:262.065 
-10 0:262.065 1:260.425 
-10 0:260.425 1:259.955 
-10 0:259.955 1:258.34 
-9.799662310539018 0:258.34 1:255.945 
-10 0:255.945 1:254.055 
-10 0:254.055 1:253.215 
-10 0:253.215 1:248.125 
-10 0:248.125 1:244.205 
10 0:244.205 1:240.165 
10 0:240.165 1:237.235 
-10 0:237.235 1:240.64 
-10 0:240.64 1:241.21 
10 0:241.21 1:240.135 
10 0:240.135 1:241.055 
-1.8720094144551 0:241.055 1:243.43 
-10 0:243.43 1:244.97 
-10 0:244.97 1:244.365 
-10 0:244.365 1:243.515 
10 0:243.515 1:239.64 
10 0:239.64 1:237.545 
10 0:237.545 1:242.15 
10 0:242.15 1:244.6 
10 0:244.6 1:245.995 
-10 0:245.995 1:247.365 
10 0:247.365 1:246.755 
4.785944070423394 0:246.755 1:247.85 
10 0:247.85 1:247.595 
10 0:247.595 1:248.97 
-10 0:248.97 1:251.34 
-10 0:251.34 1:252.115 
-10 0:252.115 1:251.69 
-10 0:251.69 1:247.305 
2.916904847943732 0:247.305 1:242.45 
10 0:242.45 1:240.215 
10 0:240.215 1:239.765 
10 0:239.765 1:239.915 
10 0:239.915 1:242.44 
10 0:242.44 1:244.68 
10 0:244.68 1:245.63 
-10 0:245.63 1:247.28 
-10 0:247.28 1:247.715 
-10 0:247.715 1:246.37 
-10 0:246.37 1:243.4 
-10 0:243.4 1:241.305 
-10 0:241.305 1:240.61 
10 0:240.61 1:237.5 
10 0:237.5 1:236.715 
-10 0:236.715 1:239.08 
-10 0:239.08 1:239.79 
10 0:239.79 1:238.305 
-10 0:238.305 1:238.43 
-10 0:238.43 1:240.395 
-10 0:240.395 1:238.05 
-10 0:238.05 1:236.2 
10 0:236.2 1:235.07 
10 0:235.07 1:234.41 
10 0:234.41 1:238.78 
10 0:238.78 1:243.405 
10 0:243.405 1:247.33 
-10 0:247.33 1:249.84 
-10 0:249.84 1:248.75 
10 0:248.75 1:246.355 
10 0:246.355 1:247.585 
10 0:247.585 1:250.375 
10 0:250.375 1:251.615 
10 0:251.615 1:255.46 
-10 0:255.46 1:258.495 
10 0:258.495 1:257.78 
10 0:257.78 1:258.38 
-10 0:258.38 1:260.095 
-10 0:260.095 1:259.14 
-10 0:259.14 1:258.115 
-10 0:258.115 1:257.765 
-10 0:257.765 1:256.855 
-10 0:256.855 1:256.745 
-10 0:256.745 1:255.505 
10 0:255.505 1:253.25 
10 0:253.25 1:252.67 
-10 0:252.67 1:253.395 
-10 0:253.395 1:252.59 
10 0:252.59 1:250.76 
-10 0:250.76 1:250.895 
-10 0:250.895 1:250.895 
10 0:250.895 1:248.155 
10 0:248.155 1:246.27 
10 0:246.27 1:250.405 
-10 0:250.405 1:253.7 
10 0:253.7 1:253.055 
10 0:253.055 1:254.84 
10 0:254.84 1:256.91 
10 0:256.91 1:260.945 
-10 0:260.945 1:264.495 
-10 0:264.495 1:264.11 
-10 0:264.11 1:264.345 
10 0:264.345 1:263.155 
10 0:263.155 1:262.64 
-10 0:262.64 1:263.485 
-10 0:263.485 1:262.795 
10 0:262.795 1:261.225 
10 0:261.225 1:261.02 
-10 0:261.02 1:262.055 
-10 0:262.055 1:262.485 
-10 0:262.485 1:262.2 
-10 0:262.2 1:261.995 
-10 0:261.995 1:261.09 
-10 0:261.09 1:259.885 
-10 0:259.885 1:257.405 
10 0:257.405 1:253.995 
10 0:253.995 1:252.64 
10 0:252.64 1:251.94 
10 0:251.94 1:252.71 
10 0:252.71 1:255.02 
-10 0:255.02 1:256.665 
-10 0:256.665 1:256.03 
-10 0:256.03 1:254.505 
-10 0:254.505 1:253.04 
10 0:253.04 1:250.83 
-10 0:250.83 1:250.76 
-10 0:250.76 1:249.45 
10 0:249.45 1:247.42 
-10 0:248.09 1:249.35 
10 0:249.35 1:249.005 
10 0:249.005 1:249.435 
10 0:249.435 1:250.27 
10 0:250.27 1:250.9 
-10 0:250.9 1:253 
-10 0:253 1:251.915 
10 0:251.915 1:249.41 
-10 0:249.41 1:248.435 
-10 0:248.435 1:247.54 
-10 0:247.54 1:247.35 
-10 0:247.35 1:246.22 
10 0:246.22 1:244.045 
10 0:244.045 1:244.635 
10 0:246.77 1:247.37 
10 0:247.37 1:248.265 
10 0:248.265 1:250.475 
10 0:250.475 1:251.085 
10 0:251.085 1:252.07 
10 0:252.07 1:252.565 
10 0:252.565 1:253.225 
10 0:254.49 1:254.91 
10 0:254.91 1:255.2 
10 0:255.2 1:255.73 
10 0:255.73 1:256.95 
10 0:256.95 1:258.025 
10 0:258.025 1:258.905 
10 0:258.905 1:259.575 
10 0:259.575 1:260.895 
-2.690324774796975 0:260.895 1:263.73 
-10 0:263.73 1:265.175 
10 0:265.175 1:263.66 
-10 0:263.495 1:264.505 
-10 0:264.505 1:263.335 
